1
40
5
-0.005064443057645399
0.9712253783956731
-0.04801427633226504
0.016272822177321723
0.5386157923651765
-0.037345649613178405
1.2010148161488485
0.004573219538481153
0.02393560150004741
0.31241291285982853
0.008112027496684228
0.00537220289246021
-0.34239228610643313
0.035555550017761416
0.7581385685597112
-0.02595178978847485
-0.033103492336974974
0.019614299869955557
-0.43394252021706836
0.6849055668661718
0.011090236274089903
-0.8904255781353495
0.015401520679866975
-0.03461428678575803
0.05678616416154113
1.293915065159375
-0.5409458805797668
-0.00374845671932151
0.033072156545949236
0.04840914786713103
0.05568731897889084
0.10190771787008338
0.025406187918929322
-0.023136209280256986
0.02081746987582687
0.05517765940014253
-0.4514218101353376
-0.26420103889377405
0.00905445536226588
0.03373401548608311
0.19923727792896415
-0.028400139784686595
-0.013698580005018205
0.003742886365185138
0.008110245430295938
0.003056404859751211
-0.006034082196348317
3.305432014255117
-4.011294733033472
0.18582669925518233
5.019220670981166
0.4039564585793852
-0.02888184340332943
-0.10367926069344562
-0.05643754827277719
0.078020262305819
0.00249054509117959
-0.04580813176297196
-0.06706302111347529
0.012341699652437631
0.009190416889839272
-0.03401983733085531
0.01693325875281259
0.03219017255172215
0.026792288788253744
0.7595331666277649
1.7709169208452207
1.3839707007982671
0.24874213076055046
-0.2259834347468422
-0.14027441377319672
0.01583735880951589
-0.003511572988381166
0.0687253357038739
-0.0015053200753843107
-0.04391697225798179
-0.04624360056232245
5.595356817261734
-0.903200129279322
-0.06883037269809991
-7.271348039555171
-1.3713784295185254
-3.6019848647643626
0.12755826705772577
0.05699585260102781
-0.004960804279511886
0.020767872843754448
0.015197984686852767
0.01996780501377123
0.05894810401950231
0.03327923280248439
-0.03447986871980038
-0.009461137055312402
0.014904150309457147
0.029738828934440013
-1.3840133652891347
-0.839394264213476
-1.752763489322401
-1.310229486277955
0.2528139077909934
1.0499620145376551
-0.0020489297410680235
8.631126763971101E-4
-0.019232461585779004
0.012859736413599197
0.020301481994221427
0.01431867129638813
0.031575342239494916
0.01709855462636571
-0.010390257382347492
0.010554655725237411
0.012989554541949956
0.009635798486369612
2.0191991033129777
-6.250073622642198
-1.107386942469537
1.4120383375310588
-1.5875041638091583
-3.588134864741575
0.03207472511169235
0.02195128448072016
-0.06671841001035873
0.015504417576052388
0.0516682735488651
0.053034264900838936
-2.875878273456066
-1.7541725400352524
0.07680407230269881
1.0795484664085027
-0.06527379153736522
0.9879055710748856
-0.0599359321903406
-0.031149860239918382
0.04920031710472968
-0.0211085707584754
-0.044265216416276905
-0.044497900955688265
0.031546320733780296
0.0049152070938004245
0.05975731066320445
0.006461993355452286
-0.03325126839844115
-0.03826030155637008
-0.016367693708700847
-0.0013542817625529625
-0.037516890277003036
0.002993480168602451
0.02545984732207975
0.023938070090056936
-3.0488508089392896
-6.125747547101584
1.3401737209697688
0.034332292105921015
0.5030971093045464
0.21960934763301276
9.037442847025988
-1.423988161088473
-0.399459642509418
1.1420908719783307
4.5467752312119165
6.68480455401823
0.03439628920479383
0.018843563895768002
-0.012721906018752727
-0.011561791044207875
2.89867972760512E-4
0.011737454557649836
5.580687213377215
-0.23838545402698375
-0.02512648548618991
3.0867543502812773
1.7696019453513596
2.417623877127395
0.021017171744143585
0.013567164179460784
-0.016199521947212924
-0.027384401918652133
-0.00769206812905942
0.012281969990467621
-0.044840566149962804
-0.026930111594484323
0.06429702889039583
-0.016143995835110485
-0.05051889299079482
-0.053066126917862846
0.034285753911429774
0.023333654943457707
-0.10461458093537669
0.011791874238388308
0.07230852186962108
0.0851117314701036
1.6182156839288493
-1.1220856391904128
0.17550121795038867
1.7738266247327121
0.1440713005699225
-2.628545450023807
2.8092713410099424
0.2593297272026485
-0.32417982031465375
0.7973653758520811
0.14899759912351862
0.12400683634339636
0.003679264201511683
5.030332394579518E-4
0.00302711117723166
0.011401848182192982
0.005421276988967844
-0.0013003395173882917
-0.02901876461962575
-0.004347941924886023
-0.060581121856515784
-0.0035772292516319916
0.035472090963115634
0.04018474939490609
-0.016052772016583537
0.007798903347266876
-0.07863851226871514
-0.027014337679893575
0.031215806548074196
0.051259163251695335
-0.05592332551286329
-0.00825878230152099
-0.09497316262002746
-0.028148123005220082
0.0404990437799786
0.05881584924224849
-0.06865355962097566
0.0026417283714633344
-0.1754408572663211
-0.0416348638802877
0.077546426210939
0.10882422836597941
-0.005597343442109407
0.003909748432990188
-0.04100407073433249
-0.014393008913697616
0.016289690050256368
0.02857560798643721
-0.004425555926544671
-0.0077417550266632475
0.04650505186775227
-0.015616736203204926
-0.039218276319882846
-0.03446160695852738
0.011933105785285099
0.011174973572909365
-0.03344991740441217
-0.007756141949238751
0.015893725834771843
0.024273267687500634
-7.617600242254088E-4
0.013820379083452622
-0.09477624623425376
-0.013239289261510974
0.04982835519091257
0.06675528785342677
2.8061208849280206
-8.28472194621847
8.522010571724086E-4
5.58989080878159
2.0802456131970266
-2.358908608238606
-0.38400224329396937
3.0650008583821045
2.0960264995100486
-0.7635606811640864
-0.1486207696569153
2.2115817101724353
0.16235014742132478
0.06559834196620527
-0.02049191622107572
0.04624127165214433
0.04238965480129707
0.0438998974658397
-0.07471757895724485
-0.021887491923755345
-0.05851538919459716
-0.023694381380476647
0.021679286882932407
0.029718612446028185
