1
40
5
-0.07601292802587774
0.049373525655048225
-0.10288766193890915
-0.8922605723415153
0.43499717611679684
-0.48345939061379795
-1.2418100198981306
0.09491166173027278
0.08784317729582529
-0.027052065202064626
-0.10028802895084006
-0.12154876164363322
0.1197639402034731
0.04100604626059275
-0.13694667834971327
-0.11026150699909808
-0.08553010883595692
-0.8782929510679383
0.09067026456288156
-0.7574234649870469
-0.11966949680200369
0.13452395123856906
-0.003928215085852976
-0.32118022058736195
-0.04458666838249938
-1.1362865190813483
0.7619550536763272
-0.10661540497844996
0.02170119725953925
-0.052233180775515684
-0.16981393181851273
-0.06883418199502961
-0.038724623816218426
0.10542170281437659
-0.971395869463433
1.4973957063736882
-1.1691097598851092
-0.7785273548145402
0.6358259884978137
-0.5897035547004741
-0.9682441705214887
0.24288384316813608
-0.04441040399754011
0.04842396698266922
-0.026233379767051358
-0.07726500097275414
0.03122220918103908
-0.15743278203976135
0.02210240583920085
-0.04764581528036194
0.0189696728588241
0.04106975607656581
-0.05803125700243761
0.34330109352544186
-0.024484545487398462
0.03819679979112116
-0.02491989671613016
-0.08864351773816842
0.06262556006495557
1.4997531728989761
-5.8745922180286625
-1.6845259526818452
-1.9199565102492873
3.324699218424886
-3.435967943824885
-1.358956478744687
-0.9223511100541729
-0.2016553476594242
-1.6629472287955103
1.914083511903805
1.995797567911277
-3.7787552895092555
4.533686336772899
0.6576689057526512
-5.954247392734558
-1.2701784322989094
-0.2489665350388572
-1.0078886663660234
3.2061450111659577
0.791648143421658
1.0267078923668798
-1.6813351850532878
1.6669731867139224
-0.3184766001442901
0.032003542956920594
-0.06593002856733182
0.017622728433778673
0.06697866384897927
-0.09053430883863457
-0.29058593096909074
0.01906124543982916
-0.10428000773909121
0.004242992597699226
0.02722028865210952
-0.15138654231936716
0.07969541758295805
-0.02379742706370232
0.01848268445677101
-0.010020758391342413
-0.032816724073515255
-0.005599071183145801
0.33877500077842354
-0.030402221245341844
0.07764577122650014
-0.010289345787051858
-0.0564872567738375
0.1131439056728389
0.4120709001296611
-0.05172897406498621
0.056078657126118404
-0.009371255474061264
-0.08905711497914005
0.08654661765109194
-0.4069072668339994
0.033336801469974205
-0.09088101613067441
-0.0071886905121726005
0.04567320473644526
-0.1425988980577718
-0.12859686977866028
0.015404723973418936
-0.02849190525862286
0.018394527573475206
0.04321642241558658
-0.023722617487079697
0.4581977927269413
-0.011742278589228283
0.024318981285236733
-0.0015837497164194123
-0.08783719937309684
0.10493104831959263
0.3682886592337485
-0.0518401681698754
0.0490503837493756
-0.02166576919591348
-0.09630716608016086
0.05869359753471794
0.2826333789133152
-0.04034050504030097
0.060833419290303385
-0.02385090833611035
-0.07163318476936567
0.06707278999341099
2.0260549980316886
-3.450512083876446
-0.23223240498138958
1.2892408414456953
0.05138281734618078
0.30719525096636763
-0.3015165163442594
0.043917174111924404
-0.06508517215639385
0.02218391598346619
0.07343758793478394
-0.07343482773045591
-4.134325022374068
2.1198323422406498
0.16031020250250766
-0.9431354263763113
1.3475585109150423
0.0016000171426207089
0.40564515266496015
-0.037120973607154585
0.057505672339543214
-0.007221263458995481
-0.07921650518691475
0.09916081071796636
-0.4476197038867236
0.050618671578002115
-0.026491165779589366
0.010681781795733647
0.11302028660793989
-0.06511702448686968
0.006288404442618976
-0.01897149566662592
0.0058963294774528946
0.0016448423706324968
-0.007845000732334928
-0.015819301567405283
0.7179397648833274
0.11005603064300976
0.2890474173415399
0.23086865104160795
0.19181123826201787
0.42278853869526545
0.14174365960293933
-0.010978577505165557
0.029087273310501188
-0.02025267414817697
-0.045942817657405564
0.029776408781256893
6.840163343461376
1.8362994671671704
2.2022136641560954
1.0461384422065017
-0.17070507390720632
-0.05525265215133553
-1.9885331084603093
0.07144411448907423
0.1461458372297637
-0.07355428516623003
-1.8592927584985408
0.8836543893209993
0.35911077998516006
-0.03594525874934501
0.05523383210939974
-0.01771841454218878
-0.08046575804694814
0.081596019357918
-0.07385259885892208
-0.01853318778504377
-0.03577506173713709
0.011044977900098332
0.005080406407733708
-0.0905714593124683
0.14556390807586045
-0.07661115812413359
0.047756980448755086
-0.015302122559229515
-0.07012834274748891
-0.022834432695786857
0.5546308624757104
-0.018982042857368722
0.021152725255628297
0.03741035938594746
-0.08251202333027217
0.14686995887811655
0.22569590969498485
-0.017458404781997155
0.05106906107526979
-0.022589422712118265
-0.05648763750755945
0.06903550174033223
0.1187660722032004
-0.026744010126478958
0.033397492214191284
-0.01528687888139262
-0.03920183270719786
0.023169650926909265
-0.3588596730836087
0.04456666904667836
-0.08829952407245638
0.007528548627556522
0.05529229564500711
-0.11840534049853482
-8.234462145376398
0.061919658718324215
-0.4056284292596172
2.626962696243436
-0.28756239016143065
-5.058611413222128
5.3051801099078695
0.7056327106780989
2.686447920167452
0.7262469520027597
-0.11257718046742139
0.5148917321030533
6.693794802014015
-0.4705481754956003
-0.13212996701179505
2.6069208638773067
0.43611884951275204
-0.9272870651260077
-6.255327376810524
3.596492792144324
-0.0032284172030225943
-1.5352110811574402
-3.2572170362726744
0.5530701256374633
-8.101116641103497
-0.4507459843963665
-4.746309206731519
-0.37743597321696326
-0.3589609823793607
-2.246612269529932
-5.857424997408281
-3.9718436448092365
-0.4568203613125271
-0.827484573268636
-0.6779275271080509
1.0328316297865898
