1
40
5
0.13778923242454294
-0.15255722707898703
-0.07026465933043213
-0.020465106363018362
0.08303374003194545
-1.1396592656984792
0.055273439672653205
-0.46666996859288207
0.10954024634498434
1.031374802729397
0.06325118448969877
-0.7944625912509724
-0.03408706539467737
-0.08652221744120453
0.028144330730922873
-0.024464708777123
0.16289545950727166
0.1254890509193358
1.0377074691302335
-1.2124647722946251
0.006987155056160671
0.12012391601634441
0.6049654872324499
0.015868517577080667
0.10278060759497568
0.8100973284520364
-0.48497534554621036
-0.18349077251673931
-0.8106502029472608
-0.5710664974791075
-0.08705073860889431
0.11736421862287146
0.007613076407578307
-0.7685426551952762
0.08542718944360503
0.12331616688574797
0.11162137432331783
-0.00282483539107776
-1.3039791716876048
0.04770843186342654
0.6454467998793342
-0.25772741127733867
0.25471694778904125
-0.29736857672783046
-0.18571375447539418
-0.0861158559701633
-0.055059614148668994
0.2535810646884474
-0.2721949130933503
0.33568256741048447
0.22401950591486372
0.09999219999973613
0.0670227818435718
0.1360656900154658
-0.08984580607262173
0.05426369594071337
0.08634542512457273
0.08754268010641661
0.05857829879936637
0.04136352173057335
-0.04943515197915861
0.0775014946676316
0.02985423021116516
0.004521244212754378
0.006055659426382504
-0.13856076158994943
0.14208637712408095
-0.14667186582591277
-0.11519647073006412
-0.07311959005467446
-0.05184299640819919
-7.230061004344438
0.2989674893404683
0.5766287995802799
-2.3675228067428193
-3.8129449657731946
-4.7734159255171695
-0.10763918144069468
0.0868710937551417
-0.08880364229911838
-0.07233757283014622
-0.05180211678896889
-0.042589764736030586
-1.947306063750367
1.7897834720844568
-1.4003943940635788
0.2947843651929193
-0.837985336704812
-1.9274588226550198
-0.1936773534589478
0.1954148014673224
-0.2202890240905987
-0.15122043069736868
-0.08420440453921695
-0.05740969580816696
-6.689049016008609
1.5352133531731056
-0.09459458841617653
0.955693412761353
-0.7777148468910626
2.334953331720301
-0.10863772530501423
0.10161237712210276
-0.10031384595867379
-0.08815149946444606
-0.05946521328426664
-0.04787709389325198
-6.724705924484473
1.0596090187904563
0.2130572867560291
-4.139564191187556
-0.7464042079411319
7.545767119143924
0.04233365090377611
-0.05343997031869145
0.037831598156794835
0.05098593499126328
0.03575294653622505
0.026362763643031206
0.1609384048025138
-0.14791485991902106
0.155859011898784
0.1075463681393527
0.07839017625930107
0.05060776872990733
-0.050932343932176945
0.04826416946223932
-0.044290291800997285
-0.036164528927627684
-0.02461683300449351
-0.01454127909792758
0.02661031727859935
-0.042006396311449944
0.02800893055974627
0.034386497100517284
0.025426166064893455
0.013086975935918755
-0.28316846267480045
0.31010838346639275
-0.3615864253249283
-0.2047950199899484
-0.09704519547190443
-0.0588805976894308
-0.222840242671087
0.22416920147562272
-0.2636668021957307
-0.18381007219698453
-0.08546510184878656
-0.06214768766903006
-0.6378863905671361
-2.5041026118734697
3.579322538863514
0.3193248148220861
2.849621370814332
-0.21866050176225532
-5.882118798856206
0.08266898428705186
0.595266965964715
7.4518731319457645
1.9840637621698762
4.166181219383534
-0.00804931044818946
0.0031607953487256682
0.007631494056603123
-0.005895572492872568
-0.015545191474104424
-0.012400060075368048
-0.22382089825191356
0.21973139906567232
-0.2547699063715903
-0.16748231817065315
-0.07873160867244962
-0.05483467526725761
3.4659346740702586
-2.946114734064711
0.5188337990050692
0.43163710610911843
0.48528576782177674
-1.731965118348745
-0.025127911360404386
0.015549360472010677
0.00728480490746436
-0.019034902071648253
-0.023814967497938398
-0.015167598763005961
-0.18579543305209925
0.1760547674453981
-0.1902034431157366
-0.13612432008766906
-0.08974902155819131
-0.05993502583357688
-0.022001892777304757
-1.6564010580008148
2.5334212608540088
-1.8249256634239421
-1.5331936457096185
-0.23023705560025176
1.1508535487523044
-3.580343752691113
-0.032147420833180555
0.10503135297346598
0.27958395582137757
0.07364573031146453
0.3415375613931073
-0.3273738323892949
0.4042534819499357
0.26337582690851763
0.08744889195817948
0.06313127164618192
-0.6266236029504346
-2.108438636985863
3.6261162056796765
-4.743797524062104
-1.1277222849855382
-0.670535723299477
-0.18913086896916617
0.0789995065416591
0.8734684235079011
-2.4855062122415923
0.10577930748435566
1.9458382366187086
0.16834729112247393
-0.1413404325877748
0.14776825965976734
0.11965255970272413
0.07662213833072061
0.05820838804467581
-0.21705428361143714
0.21596770358963682
-0.24593591225661357
-0.15746995355100554
-0.08091677519547757
-0.05059311326382749
-0.017299078782344417
0.0010457714431831985
0.00964422394176361
-0.007708967611857439
-0.015065534352051192
-0.01474570029182609
-0.3598910120248765
-3.308837746526699
4.800829647017362
1.4040210944765692
2.326567327887698
0.006048597449799841
-0.15198881324349273
0.14830401192726603
-0.16158195843156523
-0.12166703775133782
-0.06790658594420448
-0.052140656468613676
-0.2279181967168585
0.22167653327676226
-0.25722217136566344
-0.17482305031385728
-0.08363638490560661
-0.0581774052794767
-0.20230072927899506
0.19229854261245902
-0.21599708504372708
-0.15772167789990674
-0.08916263631365118
-0.06398731839147212
-0.0028640688381671156
-0.012254679110331866
0.01443930238759896
0.008484353037323535
-0.0029320738220891458
-0.004706881624161017
5.551342705157172
0.7442464342449616
-0.3800815706052701
2.7129482125638056
2.293981530216756
2.7969909065825522
-0.11936620873630618
0.07671214339841964
-0.09782438922781929
-0.05973485132723106
-0.03639814038734109
-0.038137220958279414
