1
40
5
-0.09792175547661422
-0.6289531204749921
1.5291517313844054
-0.782840325296816
-0.007818276465831248
-0.04007188069723313
-0.017602115604724425
0.05599489425148841
0.13345338253560257
-0.03464831286887152
0.040192635930651
-0.03203863080379806
0.04760736621264766
-0.0026664567591410315
-0.1279352315735573
-0.7928897068612775
0.0731540698402433
-0.07648852762517616
-0.04676315090368997
0.05378898064720073
-1.2052613759682282
0.6065208274844787
-0.03248465568423175
-0.9229788002243423
-0.004138553939550989
0.08629782486457602
-0.007447866065974257
1.0643730752282818
-1.2952327947929856
1.3179011430359242
0.8457799316027707
-1.8214781654552783
-0.03222542558874267
-0.039342346442015924
-0.3517558022222366
1.0387579262988373
0.8713325808828278
3.132092606377791E-4
0.019610321292547406
0.04156050412914351
-0.9968959381295005
0.11035651455069043
0.01918399278664203
-0.1924880673878472
-0.011892730531156477
0.11429633595776535
0.025705439597413983
-0.3304449884078277
-4.898658892267067
0.3794417845328133
-1.886965221405938
-1.132413772561218
0.8285948650325732
3.9656400470144284
0.8556143179862079
-1.0813917509761366
7.139910707191157
-2.8467719021606737
2.8650245394419196
6.812314085659804
1.1875039329459043
-0.5855051307643112
1.414899102914295
-4.30235752776853
-2.2163498072578145
0.025306901558267758
8.931784366586538E-4
0.005457546209489712
-0.004766830690601651
4.137990795340538E-5
0.0025259917551669633
0.05707327220037444
0.011198420759996533
-0.062400022032516475
-0.009067019828426984
0.040812658839416746
0.012886907023044231
0.01452180462964891
0.005957887212892681
-0.04043177152124571
-0.0018643162498251133
0.023837225088470967
0.005733384563896516
-0.014574543052692677
-0.01486602445744014
0.172829508495261
-0.00111240040787961
-0.09051334836904247
-0.013697746795509808
-0.20223830088434142
-0.025709261643983853
0.19370782561195313
0.02324654740994434
-0.13195844283331212
-0.0373577697165996
0.0012428942867242776
0.012240710042724659
-0.11499393003678304
0.002219647740801437
0.06160121774238302
0.010232764472670356
-0.026940185463573612
-0.012781180272182618
0.10099794234256283
0.0026839342399256577
-0.057453350609571775
-0.012344270812688268
0.10224649792999478
0.003928717175260659
0.020041520972611703
-0.01973171754965834
1.9645310855519193E-4
0.009742197002164516
-0.06416661723632358
-0.013176071786864415
0.0786416158554422
0.009751823751136483
-0.05061797250571261
-0.015257980658974872
-0.026391791734886146
0.003339275805304584
-0.041269047524718945
0.005869715418169756
0.01996620757596089
0.0010914997126474253
0.21389290914011222
0.028108796771246843
-0.15920557596001653
-0.028325236620138815
0.11640672665451993
0.03816543837035578
-2.1733089865158615
-6.961591425026142
3.050186046478191
-1.5110967964197615
-1.9159832680945705
-6.118924840288414
-0.051563047288998014
-0.016252718046779382
0.18410650010999263
0.004229611824418546
-0.10068560472750773
-0.018315145371704308
0.09912886590652449
0.018999442559085415
-0.1320829790896588
-0.013397456099649565
0.08358840324952137
0.023183534151408912
0.03722110982667062
0.014018785008772159
-0.11003699316349128
-0.004077231654795323
0.06380851272103832
0.014258264806353229
-0.05224643401720172
-0.01524002613032393
0.11484104073364024
0.006509946925253338
-0.06812336232951849
-0.016382025689649794
1.7554304894229291
3.210401253423532
-2.0670478727328083
1.562409556749821
1.2459116544148714
3.925169587720044
-2.8850809061920963
5.579198092053213
0.39696568265987203
-0.7490713130002584
-1.7792814947660907
-1.4108652464199922
0.07171939990602892
0.0071404375314541016
-0.019149404404369883
-0.012984222591507045
0.018609656850921027
0.010390329640469832
8.848300213869654
0.8707598887073428
-0.6386863134193754
0.6244116013933848
1.1700073901474337
-3.4367702242000013
0.0525104898693792
-0.0030388078957029447
0.05151186631330488
-0.010794261984983865
-0.022023011867008526
0.0010452686088527412
-0.11407793181174763
-0.02041101637954613
0.14646720595621154
0.014970915142173831
-0.09313588658789596
-0.0256069627284266
-0.013025922143925384
0.004205144259251007
-0.0408425940713546
0.00325524209984742
0.020880163462032225
0.002530942570943159
4.905279012412981
-0.619341816289402
-0.24271260818887713
-1.4055152599065561
-3.4133610045146123
-0.6605105361567107
-5.723720515416264
0.2847534162780228
0.5424017876941779
2.2985864774407174
1.9697611797964334
-2.7087912783192913
4.545651108466826
0.2275820833024375
0.375291604988515
0.9286565924102548
3.3963060645291145
1.7551654499938403
-2.102891331294441
-3.113970689986214
0.5334326271837119
-3.319134642436936
-0.2045096799532314
0.5166413095137281
6.0721491099855776
0.11321906745785508
-0.16523436704405833
2.130506498517142
3.2369161455730384
2.2036608987029056
0.08156417212146408
0.0061595523436875094
-0.006104492795455802
-0.015153496582601476
0.012568825023056115
0.010138796119187573
0.11382485941491503
0.005988248725776694
0.010263432282515273
-0.02165293968207158
0.007134892861593452
0.012029776508272179
1.8580986811226583
-1.3821071301337444
1.8699380640245387
2.043163767191502
1.4421978272532645
0.8761111447912551
0.9409009320340905
-1.4935056642839202
0.046835380237599145
2.036783385527923
3.0677674928736836
1.2322007257030683
3.2253479049716414
-2.531432457462131
-0.46364723577436834
-0.41445316606897775
2.5081012042061572
0.7191980582635378
0.0010518008283834728
-1.2668623090831264E-4
0.0022684651387097176
-2.90757436899609E-4
-0.0011981534732466786
-1.909973405033661E-4
-0.04299010019213781
-0.0041887875783447525
0.011875039178318867
0.00773736150665946
-0.011406217608312225
-0.006412895036492734
0.015813291621988263
-0.013435354730648535
0.16231347063122878
-0.005861058538863637
-0.08173573917509294
-0.010055028816373766
