1
40
5
-0.04222861424587063
-0.014341798866788597
0.9986761165809068
-1.1006176919202015
0.06584167696587058
-0.03851323598906295
-0.014648332562456599
-0.6062980032466868
-0.07015828314534675
-0.565935449428277
0.06170283915991261
0.0057865358204103375
0.6738842070812693
-0.6697686501440252
0.5802442073926461
-0.045740373772801386
-0.02638674609088857
-0.8772224313606767
0.0703322877240499
0.05605874773678611
-0.01806101311073652
-0.6678742959672745
-0.08742565168644538
-0.04412373844043012
-0.7180708491928682
0.02750605490942883
0.6698980217660621
7.372699019975044E-4
0.6631998772427249
-0.07988499304481303
0.7830445812555472
0.03547067310452357
0.010168231726439339
-0.0337071326015859
0.05979724928026849
-0.8230242869105101
-0.06730806934644024
-0.023501512410552906
-1.1533354694344546
-0.09877437353190371
-0.5499748539022606
0.029022459074130025
-0.031672725795866774
0.1197324598359787
-0.009983327853040909
-0.02713461410911229
-0.023949757284857827
0.014528186653649841
-0.014837342376535093
0.041189354060083186
-0.0018239684850996907
-0.011554650455015598
-0.007102873746008264
7.601268848479626
0.5948236846897844
-0.16962926771936193
-3.7078044344297876
0.6752493469690193
2.837703035365759
-2.8712982744664526
-9.23960687983897
0.5774682219120723
-2.7015130678631576
-1.6152131369517255
3.1521997590774213
-0.048066535675595344
0.029361230461986458
-0.1891803620254747
0.019485194243148114
0.020686465270214224
0.02339509996693104
0.023421542880260857
-0.03634840384214012
0.10752596541407351
-0.007842222597559291
-0.032615649327009555
-0.02823148287734077
0.008543341181517247
-0.015259445798087554
0.041031816611357325
-0.002289240625786854
-0.014197771622420568
-0.012390619069418633
-5.180536724751949
-0.5236102399535403
0.5298904812201234
-3.779290179009161
-6.034259276389271
3.40356359675227
0.019050402656307756
-0.0600030181859896
0.18926230518427695
-0.018959367304729857
-0.05691194536377506
-0.06022785804345382
0.868473286830709
1.257665186574971
1.7893076674818926
0.6260760003115939
-0.3192748888510019
-1.4614621957130507
-0.03890403301081656
0.07031724574096476
-0.16928212493678488
0.009383612306658002
0.05899451813264255
0.046419733844453415
0.007497240724013299
-0.002213414725081192
-0.014359633155054006
0.005913858193603644
0.003195075702506969
0.009522573642270495
0.9310443178569532
-3.8474271962284656
-1.5767624678248804
0.6468410656429067
0.6873844532650717
0.6211100084203427
1.9326899842115783
-2.619836428513127
-1.0593052819565925
3.911734737687221
1.3413988858805213
0.6748941367329108
2.6010998631643707
-4.7617749618933765
-0.3500426344937949
1.0238355650262172
-1.5232769586178267
2.21503061174126
0.024380702393800295
-0.040743177743244666
0.12693486194647405
-0.01060231409775969
-0.037279598291594905
-0.03423682764285964
0.006810806664601252
-0.022965667622462903
0.07264468600897221
-0.006507903189916635
-0.024532138603093057
-0.02623200917470942
0.6426572283765535
-0.4314262914412307
-1.0357541214803299
0.7618722197057707
-2.5973236934293653
-0.1062048197187366
-0.026444861879525522
0.06970509205643693
-0.19001916488093357
0.015233877899091053
0.062250969236898
0.058852523858616404
-0.022157797668608946
0.04552197045293289
-0.15399635962764593
0.015165333585861902
0.043278989627678295
0.044223490073648536
0.008442526147438614
-0.019666389654552467
0.050417966790042575
-0.0022021798764941185
-0.018788724109546944
-0.017303252631831707
-1.350269003740157
0.5889623768255812
2.21972602812741
-0.984339356657698
4.343266071531755
3.4997658677490637
0.01952801029194472
-0.07663476256993153
0.23259200086061055
-0.022731002105453743
-0.06890489031932265
-0.07391341773268306
0.02629109984471724
-0.04359359985639917
0.12265982571601981
-0.008448646672259438
-0.03867595056152305
-0.033113425373858106
2.783361048814847
-6.997480282444246
-0.5178653550425161
0.693308353485836
0.14211662048340842
1.2538460633973054
0.07544263299104796
-0.07561871746146843
-0.07722097970526341
0.04090848324724358
-0.03281163678950246
0.032948921940028436
-0.2888248720868843
-2.364957632347702
2.057470544699203
-1.3427390344378332
-3.9580469487593946
-3.3432829414755463
0.006059401959549286
-1.4445632534744007E-5
-8.107701810979537E-4
0.00136069625594181
0.0025901293056197175
0.005508680998734175
-0.7238800631068013
3.1237264770839706
3.331653413602669
0.06644307906270558
-1.02042682949282
-1.1305430005001762
0.024498901893591135
-0.0702199693350908
0.2151412865249247
-0.01967502821684524
-0.06266822337841964
-0.0648236634108978
-9.67302490116902
0.15474967554195776
0.34354191457260924
-0.6571718483560098
-1.753309369491406
2.475408037158459
-0.017860569260607317
0.03205864106531525
-0.09846356599712407
0.008243585597182575
0.030463010393637753
0.028468096640081375
0.003163787800574736
0.007843620572636475
-0.026877266406441634
0.0038689172633810994
0.01113662901433968
0.014602477368395527
0.024529280281362285
-0.027393034722933213
0.09571259582754664
-0.00730460841918222
-0.023541518751709335
-0.019646566005447005
-0.01724910613492546
0.0491723259399928
-0.16271138221632164
0.016509505837525782
0.04834155322654756
0.05168444295109067
0.09602436738746148
0.7092610111295137
0.2074891611940425
-2.11187897619617
-0.27345543919097376
-1.5329805768529394
0.017858070723376217
-0.050280751505937755
0.18235626610075978
-0.021179901626589715
-0.04969753527449386
-0.05590047676865531
0.008856222464694695
-0.015184258162639134
0.06545282450242208
-0.007696762219093723
-0.01676845620594876
-0.018733828183749347
2.671472599763059
8.511185753885993
-0.3726382448362323
2.5544301229120627
2.895115410546171
-4.381285445938463
0.013579346728686851
-0.09132557130016437
0.2585757385724399
-0.023762225958283076
-0.080728841893586
-0.08779889742374437
